
\data\
ngram 1=53
ngram 2=153
ngram 3=251

\1-grams:
0 <s> -0.5774535
-0.53854716 </s> 0
-1.82 <UNK> -1.5
-1.82 打 -1.5
-1.82 打打 -1.5
-1.82 打开 -1.5
-1.82 大 -1.5
-1.82 档 -1.5
-1.82 机 -1.5
-1.82 减 -1.5
-1.82 减小 -1.5
-1.82 开 -1.5
-1.82 开机 -1.5
-1.82 开开 -1.5
-1.82 量 -1.5
-1.82 六 -1.5
-1.82 六档 -1.5
-1.82 明 -1.5
-1.82 明明 -1.5
-1.82 请 -1.5
-1.82 请开 -1.5
-1.82 请开机 -1.5
-1.82 树 -1.5
-1.82 树请 -1.5
-1.82 树树 -1.5
-1.82 同 -1.5
-1.82 同学 -1.5
-1.82 小 -1.5
-1.82 小树 -1.5
-1.82 小小 -1.5
-1.82 学 -1.5
-1.82 音 -1.5
-1.82 音量 -1.5
-1.82 增 -1.5
-1.82 增大 -1.5
-1.82 照 -1.5
-1.82 照明 -1.5
-1.82 照照 -1.5

\2-grams:
-1.45 <s> 打 -1.5
-1.45 <s> 打打 -1.5
-1.45 <s> 打开 -1.5
-1.45 <s> 档 -1.5
-1.45 <s> 开开 -1.5
-1.45 <s> 六 -1.5
-1.45 <s> 六档 -1.5
-1.45 <s> 明明 -1.5
-1.45 <s> 树树 -1.5
-1.45 <s> 小 -1.5
-1.45 <s> 小树 -1.5
-1.45 <s> 小小 -1.5
-1.45 <s> 音 -1.5
-1.45 <s> 音量 -1.5
-1.45 <s> 照 -1.5
-1.45 <s> 照明 -1.5
-1.45 <s> 照照 -1.5
-1.45 <UNK> </s> -1.5
-1.45 <UNK> 打开 -1.5
-1.45 <UNK> 档 -1.5
-1.45 <UNK> 六 -1.5
-1.45 <UNK> 小树 -1.5
-1.45 <UNK> 照明 -1.5
-1.45 打打 <UNK> -1.5
-1.45 打 开 -1.5
-1.45 打开 </s> -1.5
-1.45 打开 <UNK> -1.5
-1.45 打开 照 -1.5
-1.45 打开 照明 -1.5
-1.45 大 <UNK> -1.5
-1.45 档 <UNK> -1.5
-1.45 机 <UNK> -1.5
-1.45 减 小 -1.5
-1.45 减小 </s> -1.5
-1.45 开 <UNK> -1.5
-1.45 开 机 -1.5
-1.45 开机 <UNK> -1.5
-1.45 开开 <UNK> -1.5
-1.45 开 照 -1.5
-1.45 量 减 -1.5
-1.45 量 增 -1.5
-1.45 六 <UNK> -1.5
-1.45 六 档 -1.5
-1.45 六档 </s> -1.5
-1.45 六档 <UNK> -1.5
-1.45 明 <UNK> -1.5
-1.45 明 打 -1.5
-1.45 明明 <UNK> -1.5
-1.45 请 开 -1.5
-1.45 请开 机 -1.5
-1.45 请开机 <UNK> -1.5
-1.45 树 <UNK> -1.5
-1.45 树 请 -1.5
-1.45 树请 开机 -1.5
-1.45 树树 <UNK> -1.5
-1.45 树 同 -1.5
-1.45 树 小 -1.5
-1.45 树 音 -1.5
-1.45 同 学 -1.5
-1.45 同学 <UNK> -1.5
-1.45 小 </s> -1.5
-1.45 小 树 -1.5
-1.45 小树 </s> -1.5
-1.45 小树 <UNK> -1.5
-1.45 小 树请 -1.5
-1.45 小树 请 -1.5
-1.45 小树 请开 -1.5
-1.45 小树 请开机 -1.5
-1.45 小树 同 -1.5
-1.45 小树 同学 -1.5
-1.45 小树 小 -1.5
-1.45 小树 小树 -1.5
-1.45 小树 音 -1.5
-1.45 小树 音量 -1.5
-1.45 小小 <UNK> -1.5
-1.45 学 <UNK> -1.5
-1.45 音 量 -1.5
-1.45 音量 减 -1.5
-1.45 音量 减小 -1.5
-1.45 音量 增 -1.5
-1.45 音量 增大 -1.5
-1.45 增 大 -1.5
-1.45 增大 <UNK> -1.5
-1.45 照 明 -1.5
-1.45 照明 </s> -1.5
-1.45 照明 <UNK> -1.5
-1.45 照明 打 -1.5
-1.45 照明 打开 -1.5
-1.45 照照 <UNK> -1.5

\3-grams:
-1.12 <s> 打打 <UNK>
-1.12 <s> 打 开
-1.12 <s> 打开 照
-1.12 <s> 打开 照明
-1.12 <s> 档 <UNK>
-1.12 <s> 开开 <UNK>
-1.12 <s> 六 <UNK>
-1.12 <s> 六 档
-1.12 <s> 六档 </s>
-1.12 <s> 六档 <UNK>
-1.12 <s> 明明 <UNK>
-1.12 <s> 树树 <UNK>
-1.12 <s> 小 树
-1.12 <s> 小 树请
-1.12 <s> 小树 请
-1.12 <s> 小树 请开
-1.12 <s> 小树 请开机
-1.12 <s> 小树 同
-1.12 <s> 小树 同学
-1.12 <s> 小树 小
-1.12 <s> 小树 小树
-1.12 <s> 小树 音
-1.12 <s> 小树 音量
-1.12 <s> 小小 <UNK>
-1.12 <s> 音 量
-1.12 <s> 音量 增
-1.12 <s> 音量 增大
-1.12 <s> 照 明
-1.12 <s> 照明 打
-1.12 <s> 照明 打开
-1.12 <s> 照照 <UNK>
-1.12 <UNK> 打开 </s>
-1.12 <UNK> 档 <UNK>
-1.12 <UNK> 六 <UNK>
-1.12 <UNK> 小树 </s>
-1.12 <UNK> 照明 </s>
-1.12 打打 <UNK> 照明
-1.12 打 开 <UNK>
-1.12 打开 <UNK> </s>
-1.12 打 开 照
-1.12 打开 照 明
-1.12 打开 照明 <UNK>
-1.12 大 <UNK> </s>
-1.12 档 <UNK> </s>
-1.12 档 <UNK> 档
-1.12 机 <UNK> </s>
-1.12 减 小 </s>
-1.12 开 <UNK> </s>
-1.12 开 机 <UNK>
-1.12 开机 <UNK> </s>
-1.12 开开 <UNK> 照明
-1.12 开 照 明
-1.12 量 减 小
-1.12 量 增 大
-1.12 六 <UNK> </s>
-1.12 六 <UNK> 六
-1.12 六 档 <UNK>
-1.12 六档 <UNK> </s>
-1.12 明 <UNK> </s>
-1.12 明 打 开
-1.12 明明 <UNK> 打开
-1.12 请 开 机
-1.12 请开 机 <UNK>
-1.12 请开机 <UNK> </s>
-1.12 树 <UNK> </s>
-1.12 树 请 开
-1.12 树请 开机 <UNK>
-1.12 树树 <UNK> 小树
-1.12 树 同 学
-1.12 树 小 树
-1.12 树 音 量
-1.12 同 学 <UNK>
-1.12 同学 <UNK> </s>
-1.12 小 树 <UNK>
-1.12 小树 <UNK> </s>
-1.12 小 树 请
-1.12 小树 请 开
-1.12 小 树请 开机
-1.12 小树 请开 机
-1.12 小树 请开机 <UNK>
-1.12 小 树 同
-1.12 小树 同 学
-1.12 小树 同学 <UNK>
-1.12 小 树 小
-1.12 小树 小 树
-1.12 小树 小树 <UNK>
-1.12 小 树 音
-1.12 小树 音 量
-1.12 小树 音量 减
-1.12 小树 音量 减小
-1.12 小小 <UNK> 小树
-1.12 学 <UNK> </s>
-1.12 音 量 减
-1.12 音量 减 小
-1.12 音量 减小 </s>
-1.12 音 量 增
-1.12 音量 增 大
-1.12 音量 增大 <UNK>
-1.12 增 大 <UNK>
-1.12 增大 <UNK> </s>
-1.12 照 明 <UNK>
-1.12 照明 <UNK> </s>
-1.12 照 明 打
-1.12 照明 打 开
-1.12 照明 打开 <UNK>
-1.12 照照 <UNK> 打开


\end\

